<?xml version="1.0"?>
<opencv_storage>
<cascade>
  <stageType>BOOST</stageType>
  <featureType>HAAR</featureType>
  <height>40</height>
  <width>40</width>
  <stageParams>
    <boostType>GAB</boostType>
    <minHitRate>9.9900001287460327e-01</minHitRate>
    <maxFalseAlarm>1.0000000149011612e-01</maxFalseAlarm>
    <weightTrimRate>9.4999998807907104e-01</weightTrimRate>
    <maxDepth>1</maxDepth>
    <maxWeakCount>100</maxWeakCount></stageParams>
  <featureParams>
    <maxCatCount>0</maxCatCount>
    <featSize>1</featSize>
    <mode>ALL</mode></featureParams>
  <stageNum>6</stageNum>
  <stages>
    <!-- stage 0 -->
    <_>
      <maxWeakCount>4</maxWeakCount>
      <stageThreshold>-2.2143808007240295e-01</stageThreshold>
      <weakClassifiers>
        <_>
          <internalNodes>
            0 -1 1 -4.3751858174800873e-03</internalNodes>
          <leafValues>
            9.6054792404174805e-01 -9.7485715150833130e-01</leafValues></_>
        <_>
          <internalNodes>
            0 -1 31 2.9814075678586960e-03</internalNodes>
          <leafValues>
            -9.1544604301452637e-01 8.9348721504211426e-01</leafValues></_>
        <_>
          <internalNodes>
            0 -1 5 -3.8099987432360649e-03</internalNodes>
          <leafValues>
            8.8658684492111206e-01 -9.2214095592498779e-01</leafValues></_>
        <_>
          <internalNodes>
            0 -1 30 -2.0593803375959396e-02</internalNodes>
          <leafValues>
            -9.0493255853652954e-01 7.8207284212112427e-01</leafValues></_></weakClassifiers></_>
    <!-- stage 1 -->
    <_>
      <maxWeakCount>6</maxWeakCount>
      <stageThreshold>-4.2886212468147278e-01</stageThreshold>
      <weakClassifiers>
        <_>
          <internalNodes>
            0 -1 19 -3.1093321740627289e-03</internalNodes>
          <leafValues>
            8.4370017051696777e-01 -8.3882784843444824e-01</leafValues></_>
        <_>
          <internalNodes>
            0 -1 8 -9.9312392994761467e-03</internalNodes>
          <leafValues>
            8.1996703147888184e-01 -7.4401044845581055e-01</leafValues></_>
        <_>
          <internalNodes>
            0 -1 42 8.6084945360198617e-04</internalNodes>
          <leafValues>
            -7.9456657171249390e-01 7.0266503095626831e-01</leafValues></_>
        <_>
          <internalNodes>
            0 -1 22 -9.8215881735086441e-03</internalNodes>
          <leafValues>
            7.4250900745391846e-01 -7.5278514623641968e-01</leafValues></_>
        <_>
          <internalNodes>
            0 -1 18 -4.1703749448060989e-03</internalNodes>
          <leafValues>
            6.8829280138015747e-01 -7.5380980968475342e-01</leafValues></_>
        <_>
          <internalNodes>
            0 -1 43 -8.9120594784617424e-03</internalNodes>
          <leafValues>
            5.1580345630645752e-01 -9.4735729694366455e-01</leafValues></_></weakClassifiers></_>
    <!-- stage 2 -->
    <_>
      <maxWeakCount>7</maxWeakCount>
      <stageThreshold>-3.5227331519126892e-01</stageThreshold>
      <weakClassifiers>
        <_>
          <internalNodes>
            0 -1 3 -4.7090882435441017e-03</internalNodes>
          <leafValues>
            7.5292325019836426e-01 -7.9263299703598022e-01</leafValues></_>
        <_>
          <internalNodes>
            0 -1 32 -1.0005250573158264e-02</internalNodes>
          <leafValues>
            6.7598277330398560e-01 -7.8647291660308838e-01</leafValues></_>
        <_>
          <internalNodes>
            0 -1 24 -7.2239220142364502e-02</internalNodes>
          <leafValues>
            -6.7263215780258179e-01 7.0883595943450928e-01</leafValues></_>
        <_>
          <internalNodes>
            0 -1 16 -1.2261383235454559e-03</internalNodes>
          <leafValues>
            6.7374169826507568e-01 -7.6512312889099121e-01</leafValues></_>
        <_>
          <internalNodes>
            0 -1 46 -4.4579729437828064e-03</internalNodes>
          <leafValues>
            5.1964962482452393e-01 -8.4185677766799927e-01</leafValues></_>
        <_>
          <internalNodes>
            0 -1 9 9.7166281193494797e-05</internalNodes>
          <leafValues>
            3.6011713743209839e-01 -9.3485575914382935e-01</leafValues></_>
        <_>
          <internalNodes>
            0 -1 9 -4.9666159611660987e-05</internalNodes>
          <leafValues>
            -9.9557602405548096e-01 3.4595632553100586e-01</leafValues></_></weakClassifiers></_>
    <!-- stage 3 -->
    <_>
      <maxWeakCount>9</maxWeakCount>
      <stageThreshold>-5.7140803337097168e-01</stageThreshold>
      <weakClassifiers>
        <_>
          <internalNodes>
            0 -1 33 -2.8647589497268200e-03</internalNodes>
          <leafValues>
            7.4923235177993774e-01 -7.5603216886520386e-01</leafValues></_>
        <_>
          <internalNodes>
            0 -1 12 -1.8145933747291565e-02</internalNodes>
          <leafValues>
            6.6531342267990112e-01 -6.0803669691085815e-01</leafValues></_>
        <_>
          <internalNodes>
            0 -1 2 -8.3418376743793488e-03</internalNodes>
          <leafValues>
            5.2421671152114868e-01 -7.9130578041076660e-01</leafValues></_>
        <_>
          <internalNodes>
            0 -1 7 3.3668980904622003e-05</internalNodes>
          <leafValues>
            4.3946862220764160e-01 -9.8636382818222046e-01</leafValues></_>
        <_>
          <internalNodes>
            0 -1 27 -3.6444580182433128e-03</internalNodes>
          <leafValues>
            5.2832061052322388e-01 -7.3128968477249146e-01</leafValues></_>
        <_>
          <internalNodes>
            0 -1 41 1.9324163440614939e-03</internalNodes>
          <leafValues>
            -6.5655332803726196e-01 6.2734389305114746e-01</leafValues></_>
        <_>
          <internalNodes>
            0 -1 15 -1.3312689960002899e-02</internalNodes>
          <leafValues>
            4.9945953488349915e-01 -7.4469995498657227e-01</leafValues></_>
        <_>
          <internalNodes>
            0 -1 45 -4.4087271817261353e-05</internalNodes>
          <leafValues>
            -8.2794541120529175e-01 3.9013275504112244e-01</leafValues></_>
        <_>
          <internalNodes>
            0 -1 44 4.0147962863557041e-05</internalNodes>
          <leafValues>
            3.2966086268424988e-01 -9.5756214857101440e-01</leafValues></_></weakClassifiers></_>
    <!-- stage 4 -->
    <_>
      <maxWeakCount>13</maxWeakCount>
      <stageThreshold>-8.7046796083450317e-01</stageThreshold>
      <weakClassifiers>
        <_>
          <internalNodes>
            0 -1 11 -1.4325105585157871e-03</internalNodes>
          <leafValues>
            6.8493825197219849e-01 -7.2148150205612183e-01</leafValues></_>
        <_>
          <internalNodes>
            0 -1 37 4.9557387828826904e-03</internalNodes>
          <leafValues>
            -7.8186780214309692e-01 5.3221714496612549e-01</leafValues></_>
        <_>
          <internalNodes>
            0 -1 23 -5.9123374521732330e-02</internalNodes>
          <leafValues>
            7.2905832529067993e-01 -5.7838231325149536e-01</leafValues></_>
        <_>
          <internalNodes>
            0 -1 7 -1.3832898730470333e-05</internalNodes>
          <leafValues>
            -8.7243962287902832e-01 4.7751232981681824e-01</leafValues></_>
        <_>
          <internalNodes>
            0 -1 34 1.7692317487671971e-03</internalNodes>
          <leafValues>
            -6.3430327177047729e-01 5.1015239953994751e-01</leafValues></_>
        <_>
          <internalNodes>
            0 -1 4 -3.4825082402676344e-03</internalNodes>
          <leafValues>
            3.9975500106811523e-01 -7.7266854047775269e-01</leafValues></_>
        <_>
          <internalNodes>
            0 -1 21 -6.8225632421672344e-03</internalNodes>
          <leafValues>
            4.6859556436538696e-01 -6.4148849248886108e-01</leafValues></_>
        <_>
          <internalNodes>
            0 -1 17 6.2031846027821302e-05</internalNodes>
          <leafValues>
            3.3629032969474792e-01 -9.2150622606277466e-01</leafValues></_>
        <_>
          <internalNodes>
            0 -1 25 1.1747451499104500e-02</internalNodes>
          <leafValues>
            -4.9536332488059998e-01 6.9488167762756348e-01</leafValues></_>
        <_>
          <internalNodes>
            0 -1 0 5.1053451898042113e-05</internalNodes>
          <leafValues>
            3.4659358859062195e-01 -9.6052771806716919e-01</leafValues></_>
        <_>
          <internalNodes>
            0 -1 38 -1.3451503764372319e-04</internalNodes>
          <leafValues>
            -9.4081723690032959e-01 2.7186793088912964e-01</leafValues></_>
        <_>
          <internalNodes>
            0 -1 40 1.3379740994423628e-03</internalNodes>
          <leafValues>
            -6.1482053995132446e-01 5.1858222484588623e-01</leafValues></_>
        <_>
          <internalNodes>
            0 -1 26 -1.3944629579782486e-02</internalNodes>
          <leafValues>
            6.7757612466812134e-01 -4.7878178954124451e-01</leafValues></_></weakClassifiers></_>
    <!-- stage 5 -->
    <_>
      <maxWeakCount>10</maxWeakCount>
      <stageThreshold>-6.0983759164810181e-01</stageThreshold>
      <weakClassifiers>
        <_>
          <internalNodes>
            0 -1 36 7.3330491431988776e-05</internalNodes>
          <leafValues>
            7.1921420097351074e-01 -9.8042416572570801e-01</leafValues></_>
        <_>
          <internalNodes>
            0 -1 13 1.2487467029131949e-04</internalNodes>
          <leafValues>
            5.5216544866561890e-01 -9.0869390964508057e-01</leafValues></_>
        <_>
          <internalNodes>
            0 -1 10 -1.8432738725095987e-03</internalNodes>
          <leafValues>
            3.8500320911407471e-01 -8.0420565605163574e-01</leafValues></_>
        <_>
          <internalNodes>
            0 -1 14 -2.7898631989955902e-02</internalNodes>
          <leafValues>
            -7.7900916337966919e-01 4.2794746160507202e-01</leafValues></_>
        <_>
          <internalNodes>
            0 -1 6 5.6308163329958916e-03</internalNodes>
          <leafValues>
            -6.8464571237564087e-01 5.1174938678741455e-01</leafValues></_>
        <_>
          <internalNodes>
            0 -1 39 6.9289846578612924e-05</internalNodes>
          <leafValues>
            3.3687454462051392e-01 -9.9241065979003906e-01</leafValues></_>
        <_>
          <internalNodes>
            0 -1 28 -3.0030838679522276e-03</internalNodes>
          <leafValues>
            6.0885870456695557e-01 -6.3496255874633789e-01</leafValues></_>
        <_>
          <internalNodes>
            0 -1 35 -3.1211951747536659e-02</internalNodes>
          <leafValues>
            3.9292770624160767e-01 -7.4963265657424927e-01</leafValues></_>
        <_>
          <internalNodes>
            0 -1 20 7.9891644418239594e-05</internalNodes>
          <leafValues>
            3.1611958146095276e-01 -9.5283699035644531e-01</leafValues></_>
        <_>
          <internalNodes>
            0 -1 29 -3.6734701134264469e-03</internalNodes>
          <leafValues>
            2.6528364419937134e-01 -9.4291079044342041e-01</leafValues></_></weakClassifiers></_></stages>
  <features>
    <_>
      <rects>
        <_>
          0 0 2 8 -1.</_>
        <_>
          0 4 2 4 2.</_></rects>
      <tilted>0</tilted></_>
    <_>
      <rects>
        <_>
          0 10 2 30 -1.</_>
        <_>
          1 10 1 30 2.</_></rects>
      <tilted>0</tilted></_>
    <_>
      <rects>
        <_>
          0 12 2 28 -1.</_>
        <_>
          1 12 1 28 2.</_></rects>
      <tilted>0</tilted></_>
    <_>
      <rects>
        <_>
          0 16 4 20 -1.</_>
        <_>
          1 16 2 20 2.</_></rects>
      <tilted>0</tilted></_>
    <_>
      <rects>
        <_>
          0 29 2 11 -1.</_>
        <_>
          1 29 1 11 2.</_></rects>
      <tilted>0</tilted></_>
    <_>
      <rects>
        <_>
          0 32 4 8 -1.</_>
        <_>
          2 32 2 8 2.</_></rects>
      <tilted>0</tilted></_>
    <_>
      <rects>
        <_>
          0 36 13 4 -1.</_>
        <_>
          0 38 13 2 2.</_></rects>
      <tilted>0</tilted></_>
    <_>
      <rects>
        <_>
          1 0 2 1 -1.</_>
        <_>
          1 0 1 1 2.</_></rects>
      <tilted>1</tilted></_>
    <_>
      <rects>
        <_>
          1 6 1 28 -1.</_>
        <_>
          1 20 1 14 2.</_></rects>
      <tilted>0</tilted></_>
    <_>
      <rects>
        <_>
          2 0 4 2 -1.</_>
        <_>
          2 0 2 2 2.</_></rects>
      <tilted>1</tilted></_>
    <_>
      <rects>
        <_>
          2 0 12 4 -1.</_>
        <_>
          2 0 6 2 2.</_>
        <_>
          8 2 6 2 2.</_></rects>
      <tilted>0</tilted></_>
    <_>
      <rects>
        <_>
          2 8 8 1 -1.</_>
        <_>
          6 8 4 1 2.</_></rects>
      <tilted>0</tilted></_>
    <_>
      <rects>
        <_>
          2 32 38 8 -1.</_>
        <_>
          2 34 38 4 2.</_></rects>
      <tilted>0</tilted></_>
    <_>
      <rects>
        <_>
          3 0 4 3 -1.</_>
        <_>
          3 0 2 3 2.</_></rects>
      <tilted>1</tilted></_>
    <_>
      <rects>
        <_>
          3 33 21 4 -1.</_>
        <_>
          10 33 7 4 2.</_></rects>
      <tilted>0</tilted></_>
    <_>
      <rects>
        <_>
          4 18 6 20 -1.</_>
        <_>
          4 28 6 10 2.</_></rects>
      <tilted>0</tilted></_>
    <_>
      <rects>
        <_>
          6 1 10 1 -1.</_>
        <_>
          11 1 5 1 2.</_></rects>
      <tilted>0</tilted></_>
    <_>
      <rects>
        <_>
          6 3 1 6 -1.</_>
        <_>
          6 3 1 3 2.</_></rects>
      <tilted>1</tilted></_>
    <_>
      <rects>
        <_>
          6 33 1 6 -1.</_>
        <_>
          6 33 1 3 2.</_></rects>
      <tilted>1</tilted></_>
    <_>
      <rects>
        <_>
          7 0 25 2 -1.</_>
        <_>
          7 1 25 1 2.</_></rects>
      <tilted>0</tilted></_>
    <_>
      <rects>
        <_>
          8 0 1 6 -1.</_>
        <_>
          8 0 1 3 2.</_></rects>
      <tilted>1</tilted></_>
    <_>
      <rects>
        <_>
          9 0 21 2 -1.</_>
        <_>
          9 1 21 1 2.</_></rects>
      <tilted>0</tilted></_>
    <_>
      <rects>
        <_>
          10 1 6 8 -1.</_>
        <_>
          12 3 2 8 3.</_></rects>
      <tilted>1</tilted></_>
    <_>
      <rects>
        <_>
          10 13 20 18 -1.</_>
        <_>
          10 22 20 9 2.</_></rects>
      <tilted>0</tilted></_>
    <_>
      <rects>
        <_>
          10 26 21 12 -1.</_>
        <_>
          10 30 21 4 2.</_></rects>
      <tilted>0</tilted></_>
    <_>
      <rects>
        <_>
          13 8 16 12 -1.</_>
        <_>
          13 11 16 6 2.</_></rects>
      <tilted>0</tilted></_>
    <_>
      <rects>
        <_>
          14 30 23 6 -1.</_>
        <_>
          14 33 23 3 2.</_></rects>
      <tilted>0</tilted></_>
    <_>
      <rects>
        <_>
          16 0 14 2 -1.</_>
        <_>
          16 1 14 1 2.</_></rects>
      <tilted>0</tilted></_>
    <_>
      <rects>
        <_>
          23 28 14 6 -1.</_>
        <_>
          23 28 7 3 2.</_>
        <_>
          30 31 7 3 2.</_></rects>
      <tilted>0</tilted></_>
    <_>
      <rects>
        <_>
          26 0 8 8 -1.</_>
        <_>
          26 4 8 4 2.</_></rects>
      <tilted>0</tilted></_>
    <_>
      <rects>
        <_>
          27 31 9 6 -1.</_>
        <_>
          30 31 3 6 2.</_></rects>
      <tilted>0</tilted></_>
    <_>
      <rects>
        <_>
          29 6 10 2 -1.</_>
        <_>
          34 6 5 2 2.</_></rects>
      <tilted>0</tilted></_>
    <_>
      <rects>
        <_>
          30 28 10 12 -1.</_>
        <_>
          30 31 10 6 2.</_></rects>
      <tilted>0</tilted></_>
    <_>
      <rects>
        <_>
          31 4 5 6 -1.</_>
        <_>
          31 7 5 3 2.</_></rects>
      <tilted>0</tilted></_>
    <_>
      <rects>
        <_>
          31 38 9 2 -1.</_>
        <_>
          31 39 9 1 2.</_></rects>
      <tilted>0</tilted></_>
    <_>
      <rects>
        <_>
          32 12 8 26 -1.</_>
        <_>
          32 25 8 13 2.</_></rects>
      <tilted>0</tilted></_>
    <_>
      <rects>
        <_>
          36 1 3 6 -1.</_>
        <_>
          36 4 3 3 2.</_></rects>
      <tilted>0</tilted></_>
    <_>
      <rects>
        <_>
          37 0 3 21 -1.</_>
        <_>
          38 7 1 7 9.</_></rects>
      <tilted>0</tilted></_>
    <_>
      <rects>
        <_>
          37 1 2 6 -1.</_>
        <_>
          37 4 2 3 2.</_></rects>
      <tilted>0</tilted></_>
    <_>
      <rects>
        <_>
          37 2 3 4 -1.</_>
        <_>
          37 4 3 2 2.</_></rects>
      <tilted>0</tilted></_>
    <_>
      <rects>
        <_>
          38 2 2 18 -1.</_>
        <_>
          38 2 1 9 2.</_>
        <_>
          39 11 1 9 2.</_></rects>
      <tilted>0</tilted></_>
    <_>
      <rects>
        <_>
          38 32 2 8 -1.</_>
        <_>
          39 32 1 8 2.</_></rects>
      <tilted>0</tilted></_>
    <_>
      <rects>
        <_>
          38 34 2 6 -1.</_>
        <_>
          39 34 1 6 2.</_></rects>
      <tilted>0</tilted></_>
    <_>
      <rects>
        <_>
          39 2 1 34 -1.</_>
        <_>
          39 19 1 17 2.</_></rects>
      <tilted>0</tilted></_>
    <_>
      <rects>
        <_>
          39 4 1 8 -1.</_>
        <_>
          39 8 1 4 2.</_></rects>
      <tilted>0</tilted></_>
    <_>
      <rects>
        <_>
          39 5 1 6 -1.</_>
        <_>
          39 8 1 3 2.</_></rects>
      <tilted>0</tilted></_>
    <_>
      <rects>
        <_>
          39 12 1 18 -1.</_>
        <_>
          39 21 1 9 2.</_></rects>
      <tilted>0</tilted></_></features></cascade>
</opencv_storage>
