<?xml version="1.0"?>
<opencv_storage>
<stage3>
  <maxWeakCount>9</maxWeakCount>
  <stageThreshold>-5.7140803337097168e-01</stageThreshold>
  <weakClassifiers>
    <_>
      <internalNodes>
        0 -1 1910437 -2.8647589497268200e-03</internalNodes>
      <leafValues>
        7.4923235177993774e-01 -7.5603216886520386e-01</leafValues></_>
    <_>
      <internalNodes>
        0 -1 234978 -1.8145933747291565e-02</internalNodes>
      <leafValues>
        6.6531342267990112e-01 -6.0803669691085815e-01</leafValues></_>
    <_>
      <internalNodes>
        0 -1 41238 -8.3418376743793488e-03</internalNodes>
      <leafValues>
        5.2421671152114868e-01 -7.9130578041076660e-01</leafValues></_>
    <_>
      <internalNodes>
        0 -1 80648 3.3668980904622003e-05</internalNodes>
      <leafValues>
        4.3946862220764160e-01 -9.8636382818222046e-01</leafValues></_>
    <_>
      <internalNodes>
        0 -1 1179134 -3.6444580182433128e-03</internalNodes>
      <leafValues>
        5.2832061052322388e-01 -7.3128968477249146e-01</leafValues></_>
    <_>
      <internalNodes>
        0 -1 2041461 1.9324163440614939e-03</internalNodes>
      <leafValues>
        -6.5655332803726196e-01 6.2734389305114746e-01</leafValues></_>
    <_>
      <internalNodes>
        0 -1 370550 -1.3312689960002899e-02</internalNodes>
      <leafValues>
        4.9945953488349915e-01 -7.4469995498657227e-01</leafValues></_>
    <_>
      <internalNodes>
        0 -1 2042014 -4.4087271817261353e-05</internalNodes>
      <leafValues>
        -8.2794541120529175e-01 3.9013275504112244e-01</leafValues></_>
    <_>
      <internalNodes>
        0 -1 2041945 4.0147962863557041e-05</internalNodes>
      <leafValues>
        3.2966086268424988e-01 -9.5756214857101440e-01</leafValues></_></weakClassifiers></stage3>
</opencv_storage>
