<?xml version="1.0"?>
<opencv_storage>
<stage12>
  <maxWeakCount>6</maxWeakCount>
  <stageThreshold>-9.9026691913604736e-01</stageThreshold>
  <weakClassifiers>
    <_>
      <internalNodes>
        0 -1 3239 -5.7278038002550602e-04</internalNodes>
      <leafValues>
        6.9092220067977905e-01 -6.8583160638809204e-01</leafValues></_>
    <_>
      <internalNodes>
        0 -1 9793 -4.5589767396450043e-03</internalNodes>
      <leafValues>
        4.6509012579917908e-01 -7.8600466251373291e-01</leafValues></_>
    <_>
      <internalNodes>
        0 -1 9 1.0033434591605328e-05</internalNodes>
      <leafValues>
        2.9907345771789551e-01 -1.</leafValues></_>
    <_>
      <internalNodes>
        0 -1 17942 -2.3116289079189301e-01</internalNodes>
      <leafValues>
        5.1328372955322266e-01 -5.7498496770858765e-01</leafValues></_>
    <_>
      <internalNodes>
        0 -1 175814 3.8904845714569092e-03</internalNodes>
      <leafValues>
        -7.1909379959106445e-01 4.4861003756523132e-01</leafValues></_>
    <_>
      <internalNodes>
        0 -1 174362 -3.1990522984415293e-05</internalNodes>
      <leafValues>
        -9.6324253082275391e-01 3.0887079238891602e-01</leafValues></_></weakClassifiers></stage12>
</opencv_storage>
