<?xml version="1.0"?>
<opencv_storage>
<stage11>
  <maxWeakCount>6</maxWeakCount>
  <stageThreshold>-9.3357330560684204e-01</stageThreshold>
  <weakClassifiers>
    <_>
      <internalNodes>
        0 -1 160141 1.3182203983888030e-03</internalNodes>
      <leafValues>
        -7.0267593860626221e-01 7.1470266580581665e-01</leafValues></_>
    <_>
      <internalNodes>
        0 -1 72 -5.8319230447523296e-05</internalNodes>
      <leafValues>
        -8.9053118228912354e-01 4.8664158582687378e-01</leafValues></_>
    <_>
      <internalNodes>
        0 -1 152073 -2.2171204909682274e-02</internalNodes>
      <leafValues>
        -9.2630332708358765e-01 3.9469978213310242e-01</leafValues></_>
    <_>
      <internalNodes>
        0 -1 175922 -9.1572944074869156e-03</internalNodes>
      <leafValues>
        4.4784477353096008e-01 -6.5362006425857544e-01</leafValues></_>
    <_>
      <internalNodes>
        0 -1 136817 -1.2132902629673481e-02</internalNodes>
      <leafValues>
        6.4404416084289551e-01 -5.2977919578552246e-01</leafValues></_>
    <_>
      <internalNodes>
        0 -1 335 -5.2407281473278999e-03</internalNodes>
      <leafValues>
        3.4686842560768127e-01 -9.1826188564300537e-01</leafValues></_></weakClassifiers></stage11>
</opencv_storage>
