<?xml version="1.0"?>
<opencv_storage>
<stage9>
  <maxWeakCount>6</maxWeakCount>
  <stageThreshold>-9.9032396078109741e-01</stageThreshold>
  <weakClassifiers>
    <_>
      <internalNodes>
        0 -1 168875 3.8074054755270481e-03</internalNodes>
      <leafValues>
        -8.2178217172622681e-01 7.0292150974273682e-01</leafValues></_>
    <_>
      <internalNodes>
        0 -1 62931 -1.0987011715769768e-02</internalNodes>
      <leafValues>
        -7.3556125164031982e-01 5.7895952463150024e-01</leafValues></_>
    <_>
      <internalNodes>
        0 -1 34531 8.9683029800653458e-03</internalNodes>
      <leafValues>
        -6.7547190189361572e-01 5.4333734512329102e-01</leafValues></_>
    <_>
      <internalNodes>
        0 -1 10918 -4.5119691640138626e-03</internalNodes>
      <leafValues>
        5.1557046175003052e-01 -7.4608367681503296e-01</leafValues></_>
    <_>
      <internalNodes>
        0 -1 175201 -3.9189158997032791e-05</internalNodes>
      <leafValues>
        -8.5747116804122925e-01 3.6602121591567993e-01</leafValues></_>
    <_>
      <internalNodes>
        0 -1 175396 1.1507454328238964e-03</internalNodes>
      <leafValues>
        -8.4920006990432739e-01 3.6558282375335693e-01</leafValues></_></weakClassifiers></stage9>
</opencv_storage>
